-6.96085205993e-59
 -1.84355624174e-59
 5.07638804701e-59
 -5.04330233611e-59
 1.68207000093e-59
 -7.4214938864e-59
 2.67118619366e-59
 2.46064239848e-59
 7.18739755475e-59
 -7.45714763751e-59
 -4.02977181165e-59
 -3.16280470678e-59
 -3.66310412245e-59
 -5.71326633636e-59
 -7.661150593e-59
 5.95562453773e-59
 6.32115955075e-59
 6.77204734182e-59
 -3.87075214968e-59
 3.23186550019e-59
 -4.66595443254e-59
 2.85920785942e-59
 -5.86232985456e-59
 4.59686857907e-59
 -6.98601116564e-59
 1.23721604538e-59
 -7.31733425679e-59
 7.07546181816e-59
 2.80219146446e-59
 6.92269982372e-59
 -7.54019121864e-60
 3.57323382359e-59
 -2.633459189e-59
 4.69214256112e-59
 -2.27925992043e-60
 -1.86582188664e-59
 -5.34661627846e-59
 2.50730649991e-59
 6.26717982824e-59
 -8.96046058437e-60
 -5.47590848572e-59
 -4.47574367123e-59
 -1.00097556163e-59
 3.43883214999e-59
 3.36972349307e-59
 -1.98595915118e-60
 7.87175477472e-59
 6.77712497257e-59
 4.59459880628e-59
 3.75049087563e-59
 -9.24840617491e-60
 -7.29201238549e-59
 -5.05424787109e-60
 -3.48920871713e-59
 6.2938347662e-59
 5.44214735312e-59
 -3.12779985049e-59
 -8.658174344e-59
 5.03833542281e-59
 8.22150789662e-59
 4.14022745309e-59
 3.08073625548e-59
 3.59253425362e-59
 4.12710263538e-59
