-0.0266069164236
 -0.0826250077796
 -0.0736210978096
 -0.135100282223
 -0.222159163473
 0.0827232480632
 -0.233222065876
 0.221100631102
 -0.0978947895943
 0.00842611180077
 0.136728383067
 0.154842375872
 -0.218487050606
 -0.0828431106824
 -0.0978873060309
 -0.137378997345
 -0.0824661186141
 -0.0619061563133
 0.16259662453
 -0.055487572396
 -0.125790868122
 0.070214946467
 -0.0800241689727
 0.209860409727
 -0.168817194039
 0.0729525129588
 -0.0932019412643
 0.141757816225
 0.196823046648
 -0.170527530694
 0.0875346611025
 -0.0113984603403
 -0.233612043463
 0.0480246911186
 -0.14241566675
 -0.155029250609
 -0.0112952158879
 -0.159739412902
 0.143192783001
 -0.22626017659
 0.223821112317
 -0.066573890848
 0.212993057744
 -0.120648847573
 -0.095381573741
 0.091875685139
 -0.0722946776682
 -0.164040918653
 -0.000346529724615
 0.133427472887
 0.066852853125
 0.0496049815302
 -0.00633648211704
 -0.210512415293
 -0.220411774954
 0.0888691963958
 0.0650637413788
 -0.122175179689
 -0.0276780031246
 0.0501541057499
 0.0288058614113
 -0.060916600291
 -0.141695435177
 0.138178841009
 -0.0435417849978
 0.0746868345923
 0.179111492078
 0.153850741855
 0.143744967511
 0.0993240529019
 0.160298920109
 -0.1862663054
 -0.229112651881
 -0.170608400905
 0.0414891384101
 0.0328708748047
 0.0177175509049
 -0.196727724816
 -0.0238165404887
 0.0486683176987
 0.127323645372
 0.0196140028338
 -0.0207350956211
 -0.0831385978595
 0.207079678596
 0.0526865145151
 0.0765955105644
 -0.118888977223
 -0.130821577648
 -0.074260546599
 -0.192534517884
 -0.223604874625
 -0.194223553644
 -0.105219416925
 -0.229293826054
 -0.072816098062
 -0.172489425248
 0.191703474495
 -0.0294821794473
 -0.0619315886501
 0.187271834437
 -0.207774229881
 -0.00957652901508
 0.0685750108728
 0.0814083303077
 0.0653736011369
 0.118411080788
 0.164719974718
 -0.0174440241077
 -0.126427783029
 0.204816503519
 0.239454846742
 -0.144335542946
 0.0317622821165
 -0.165094628328
 0.0180827036627
 -0.109024433157
 -0.222544136704
 -0.155390868799
 0.10149421285
 -0.152606710791
 0.179366361529
 -0.212839986284
 -0.0362537766888
 -0.207089843237
 0.12995738232
 -0.184937134451
 -0.227865210639
 -0.113954365244
 -0.0752244998639
 -0.0264162111752
 0.183768716719
 0.168244342711
 -0.178039642781
 -0.0895439550532
 0.0607073277475
 0.114971220521
 -0.120489196838
 0.176371639194
 0.0850792579756
 0.0692432238074
 -0.0179748193925
 0.237125163666
 -0.141035909732
 -0.217624266233
 -0.136359734138
 0.172050331187
 0.0999911443661
 0.0434060936702
 0.092559937722
 0.117695604868
 -0.11956171012
 -0.122208184912
 -0.0731116202875
 0.140301872821
 -0.0680666227969
 0.226130168862
 0.19656446735
 0.117297685276
 -0.0101724396555
 -0.214516719049
 0.0216356101785
 -0.169790271678
 0.0860093604071
 -0.186157178677
 -0.0699849584769
 -0.0127678377955
 -0.203121540587
 -0.0692346170501
 -0.118174792411
 -0.112145977444
 -0.0272674804824
 -0.150545491991
 -0.211520603409
 0.0875732601833
 0.206680178949
 -0.072650199711
 0.0205449057952
 -0.0552704487224
 -0.174163782211
 0.22196140453
 0.045079278701
 0.0631540576828
 0.142746375175
 0.0561367053454
 -0.133131431185
 0.0740527262003
 0.199548434432
 -0.0137721789775
 0.131431916671
 0.0100947129903
 0.227689171006
 -0.154156172363
 0.00155011297016
 0.172387661528
 -0.120907859068
 0.00623945434601
 -0.216306354024
 -0.239868234766
 -0.0750210156624
 -0.101828069117
 0.0540772577736
 -0.188043680157
 0.185094577026
 0.164733018056
 0.106110778813
 0.0187147379001
 0.154094655794
 0.0478858283575
 -0.180926721596
 0.0727939169635
 0.0691998620236
 -0.235128324996
 0.196582265339
 -0.162383501818
 -0.219048529821
 0.186730388755
 -0.161013484914
 -0.0223492580214
 -0.104807287869
 -0.137885694497
 0.12720844248
 -0.0833374647955
 -0.0198904603079
 0.213956326569
 -0.0538726648322
 -0.10310505393
 0.208389839567
 0.027177580207
 0.236232959117
 -0.190511402342
 0.0383998361549
 0.0970635424813
 0.0172977631743
 0.225886677919
 -0.162040401199
 -0.0861321862017
 0.186221660627
 -0.185397151
 -0.123921025469
 -0.0254034541022
 -0.0924673459645
 -0.121716211242
 -0.212134157774
 0.195746228797
 0.1928912343
 0.138407347973
 0.121617787775
 -0.18766428084
 -0.0529545890051
 -0.157948314856
 0.204547883533
 -0.210528890455
 0.0628045968562
 -0.196934214414
 -0.117705917958
