-0.218295321566
 0.168118802991
 0.0606840197796
 0.0290883989424
 0.104766590194
 0.208719209871
 0.140282582186
 0.053819796025
 -0.136048772062
 0.218853544375
 -0.0396837935131
 -0.194702959007
 -0.185821186334
 0.178499101473
 -0.081133133
 -0.0872114448902
 0.182806400764
 -0.105305623748
 0.0863798459304
 -0.00351841046028
 -0.130897046651
 0.0426702533403
 0.117284260881
 -0.128722035243
 0.0226239798609
 0.21230645169
 -0.0386614217853
 0.0724215415436
 0.0844634830042
 -0.0453347824235
 0.106415616224
 0.0729855158424
 -0.0284344027393
 0.00449313811198
 0.137008826269
 -0.0863350813921
 -0.146470081015
 0.0887082058998
 0.0443268230736
 -0.126188617797
 -0.107336356578
 -0.151324223764
 -0.122957291361
 0.0844423614031
 0.153395178975
 0.0840476408928
 -0.210829524331
 0.0607772199226
 -0.171176830935
 0.0460555479984
 -0.209322501342
 0.139453250968
 0.00752137331163
 -0.121226632761
 -0.145989034445
 0.126320776468
 0.0437889624786
 0.0909678313816
 0.158298559998
 -0.138791627312
 0.183984683646
 0.188246404665
 -0.111443004134
 -0.195065775175
 0.0774756721227
 0.100682046947
 0.155152379524
 -0.0558318263281
 -0.0018142800886
 0.117082362256
 0.162654499115
 0.0131855142527
 -0.116087922016
 -0.0549577140919
 -0.00431652709583
 0.196840822357
 -0.0955073276384
 -0.0507391158983
 -0.00940348173219
 -0.210281512856
 0.204566907794
 0.0718812344654
 0.190709034771
 0.108523631781
 0.224424637172
 -0.0542765239496
 0.13697950324
 0.090933424331
 0.0323447686877
 0.104859832687
 0.127639240865
 -0.0736275611442
 0.137854202006
 0.207873322169
 0.188863607489
 0.216393565432
 -0.061883945966
 -0.0285714787552
 0.0500405907768
 0.00794732316409
 0.151854186765
 0.0372106035767
 0.0275909974577
 -0.150506876863
 0.136379153324
 -0.205313546363
 0.177374012025
 -0.164246108177
 -0.201813148123
 -0.0762992573775
 0.035587125416
 0.0135158046786
 0.165802303891
 -0.0193178965486
 0.227314516858
 -0.054978016571
 -0.207157034367
 -0.214308066101
 0.058337808263
 0.150017262526
 -0.127147847244
 0.032773161413
 0.143612082824
 -0.148460774007
 -0.22491634696
 0.0393016960728
 0.21541482491
 0.0396659043915
