-0.15970631933
 0.122996842274
 0.044396835313
 0.0212812674911
 0.0766479390792
 0.152700371876
 0.102631676695
 0.0393749232397
 -0.0995341928516
 0.160114718876
 -0.0290329291236
 -0.142445988868
 -0.135948024493
 0.130591138167
 -0.0593575435067
 -0.0638044771961
 0.133742387178
 -0.0770422996374
 0.0631960738274
 -0.00257409265794
 -0.0957651560365
 0.0312178431355
 0.0858059507928
 -0.0941739031231
 0.0165518551944
 0.155324822017
 -0.02828495512
 0.0529840848497
 0.0617940498753
 -0.033167230459
 0.0778543775675
 0.053396692224
 -0.0208027994886
 0.00328720993633
 0.10023657494
 -0.0631633237913
 -0.107158492281
 0.0648995175756
 0.0324298006476
 -0.0923204379515
 -0.0785279973769
 -0.110709815627
 -0.0899563778883
 0.0617785971705
 0.11222494033
 0.0614898170015
 -0.154244292069
 0.0444650211618
 -0.125234116
 0.033694547381
 -0.153141743957
 0.102024932422
 0.00550268709055
 -0.0886902164651
 -0.106806555388
 0.0924171261202
 0.0320362982339
 0.0665526747123
 0.115812286728
 -0.101540884123
 0.134604426826
 0.137722330467
 -0.0815324482341
 -0.142711427607
 0.0566817206323
 0.0736596598826
 0.113510520021
 -0.0408469380854
 -0.00132733946429
 0.0856582404065
 0.118999120961
 0.00964661053964
 -0.0849307012665
 -0.0402074317189
 -0.00315800013403
 0.144010064013
 -0.0698738005779
 -0.0371210770257
 -0.00687965021679
 -0.153843363204
 0.149662519866
 0.0525887925725
 0.139524007147
 0.0793966158678
 0.16419056768
 -0.0397090684483
 0.100215122015
 0.0665275022836
 0.0236636494069
 0.0767161559114
 0.0933817235035
 -0.053866416867
 0.100855057491
 0.152081514768
 0.138173880187
 0.158314981805
 -0.0452747093477
 -0.0209030852199
 0.0366100313683
 0.00581431485548
 0.111097540109
 0.0272235268015
 0.0201857585358
 -0.11011183916
 0.0997759019956
 -0.150208765644
 0.129768015192
 -0.12016355281
 -0.147647850847
 -0.0558210477255
 0.0260357793056
 0.00988825322743
 0.121302076017
 -0.0141331025001
 0.166304823014
 -0.0402222851486
 -0.151557473814
 -0.156789216527
 0.0426803312532
 0.109753634032
 -0.0930222166392
 0.023977064394
 0.105067561662
 -0.108614896607
 -0.164550305854
 0.0287533840771
 0.157598928684
 0.0290198413224
