-0.0443618165699
 0.00405298207233
 -0.0151018094184
 0.0750373115762
 -0.0084975367333
 0.0109894027827
 0.0663441147919
 -0.0691319817546
 0.0739204802157
 0.0585103459239
 0.021970657411
 -0.0824449279185
 0.0515474133369
 -0.0715146800442
 0.0224692624376
 -0.0531253148771
 -0.0377826520059
 -0.0406874230106
 -0.0932046898063
 -0.0387975356248
 0.0311693649135
 -0.00479834784623
 -0.0665742417621
 -0.0124823321282
 -0.0596719065143
 -0.0548362257295
 -0.0512590253984
 0.00719002665722
 -0.0517635887556
 -0.00711239245849
 0.0808280402079
 -0.0864018686104
 -0.0210706847788
 -0.0276932714933
 0.0265481096128
 0.00402061715383
 -0.0361813090476
 0.0579378614877
 -0.0416024441617
 -0.0457071396201
 0.0874218342061
 0.091165018219
 0.0224416899258
 0.041524045679
 -0.0722950974693
 0.00628349348267
 0.00380206758043
 -0.0750487442112
 -0.0412671554672
 0.0245809409511
 -0.0485398994074
 0.0128599830525
 -0.0242517631187
 0.0545431199798
 0.0671213765566
 0.0959841902031
 -0.0968895100913
 0.0755007727003
 0.072899791121
 -0.0389033437899
 0.0194252563326
 0.0576858621813
 0.0576403384065
 0.0182654483991
