-0.022758032183
 -0.0706726986411
 -0.0629712698243
 -0.115557042456
 -0.190022222477
 0.0707567277522
 -0.199484795476
 0.189116814524
 -0.0837335953056
 0.00720721336089
 0.116949626655
 0.132443298475
 -0.186881307481
 -0.0708592513706
 -0.083727194294
 -0.117506124839
 -0.0705367939506
 -0.0529509799361
 0.13907583859
 -0.0474608909294
 -0.107594302906
 0.0600578430807
 -0.0684480901097
 0.179502573033
 -0.144396557415
 0.0623994006415
 -0.0797196016648
 0.121251515676
 0.168351159475
 -0.145859481416
 0.0748721348535
 -0.00974959003633
 -0.199818359964
 0.0410775697814
 -0.121814203332
 -0.132603140421
 -0.00966128064592
 -0.136631943433
 0.122478904058
 -0.193529994179
 0.191443758317
 -0.056943492675
 0.182182060699
 -0.103196113079
 -0.0815839344294
 0.0785851981472
 -0.0618367260168
 -0.14031120505
 -0.000296401676151
 0.114126217173
 0.0571821010269
 0.0424292596756
 -0.00541986382981
 -0.180060261246
 -0.188527606434
 0.0760136198971
 0.055651797325
 -0.104501650137
 -0.023674178392
 0.0428989490776
 0.0246388837632
 -0.0521045703994
 -0.121198158502
 0.118190265292
 -0.0372431486803
 0.0638828400196
 0.153201710269
 0.131595111541
 0.122951211057
 0.0849561052663
 0.137110513848
 -0.159321527734
 -0.195969838144
 -0.145928653163
 0.035487432371
 0.0281158633635
 0.0151545781285
 -0.168269626641
 -0.0203713044496
 0.0416280910892
 0.108905352762
 0.0167766944739
 -0.0177356130245
 -0.0711119941755
 0.177124094913
 0.0450650264713
 0.0655154121113
 -0.101690820792
 -0.111897283659
 -0.0635182176892
 -0.164682997631
 -0.191258800982
 -0.166127702067
 -0.0899986619469
 -0.196124804154
 -0.0622827191531
 -0.147537573634
 0.163972170721
 -0.0252173674697
 -0.0529727333002
 0.160181599673
 -0.177718174296
 -0.00819121434658
 0.0586551361139
 0.0696320224267
 0.0559168336123
 0.101282055557
 0.140892030709
 -0.0149206189746
 -0.108139083432
 0.175188304594
 0.204815959196
 -0.123456355454
 0.0271676366816
 -0.141212487945
 0.0154669088804
 -0.0932532548689
 -0.190351506527
 -0.132912447906
 0.0868123357728
 -0.130531038631
 0.153419710997
 -0.182051132141
 -0.0310094038522
 -0.177132789164
 0.11115810048
 -0.158184631044
 -0.194902848363
 -0.0974700363749
 -0.0643427280938
 -0.0225949138378
 0.157185233446
 0.143906573204
 -0.152284911779
 -0.0765907698005
 0.0519255706535
 0.0983397961296
 -0.103059556985
 0.150858197059
 0.0727719236718
 0.0592266871809
 -0.0153746308556
 0.202823281744
 -0.120634038216
 -0.186143331151
 -0.116634305478
 0.147161997727
 0.0855266970917
 0.0371270860915
 0.0791704686106
 0.100670078439
 -0.102266237976
 -0.104529880914
 -0.0625354919364
 0.12000618509
 -0.0582202900758
 0.193418793016
 0.168129985556
 0.100329720814
 -0.00870092217279
 -0.1834853133
 0.0185058615926
 -0.145228872286
 0.0735674800126
 -0.159228186987
 -0.0598611245283
 -0.0109208770694
 -0.173738530394
 -0.0592193254537
 -0.101079948014
 -0.0959232450408
 -0.0233230408398
 -0.128767990142
 -0.180922607608
 0.0749051502962
 0.176782385799
 -0.0621408192068
 0.0175729355421
 -0.0472751757765
 -0.148969722669
 0.189853070806
 0.0385582327216
 0.054018363284
 0.122097072375
 0.04801612207
 -0.113873000059
 0.0633404600247
 0.170682300068
 -0.0117799329848
 0.112419332698
 0.00863443923578
 0.194752274146
 -0.131856359301
 0.00132587783945
 0.147450530778
 -0.103417656674
 0.00533687183252
 -0.185016064542
 -0.205169547631
 -0.0641686793641
 -0.0870978972992
 0.0462545885885
 -0.160841792288
 0.158319298404
 0.140903187233
 0.0907610818459
 0.0160075147622
 0.131803741553
 0.0409587945301
 -0.154754353616
 0.062263746712
 0.0591895979949
 -0.201115300331
 0.168145208936
 -0.138893545631
 -0.187361564638
 0.159718478053
 -0.13772171165
 -0.0191162750775
 -0.0896461503605
 -0.117939524558
 0.108806814808
 -0.0712820935608
 -0.0170131603609
 0.183005985674
 -0.0460795915062
 -0.088190156958
 0.178244731557
 0.023246145294
 0.202060141081
 -0.162952540487
 0.0328450201867
 0.0830225941414
 0.0147955157504
 0.193210524811
 -0.138600077015
 -0.0736725381615
 0.159283341153
 -0.158578102849
 -0.105994946611
 -0.0217286594514
 -0.0790912709252
 -0.104109074819
 -0.181447406866
 0.167430111169
 0.164988112419
 0.11838571706
 0.104024889023
 -0.160517275845
 -0.0452943220339
 -0.135099940764
 0.174958542444
 -0.180074353156
 0.0537194545111
 -0.168446246014
 -0.100678899665
